<?xml version="1.0"?>
<opencv_storage>
<cascade>
  <stageType>BOOST</stageType>
  <featureType>HAAR</featureType>
  <height>46</height>
  <width>38</width>
  <stageParams>
    <boostType>GAB</boostType>
    <minHitRate>9.9500000476837158e-01</minHitRate>
    <maxFalseAlarm>5.0000000000000000e-01</maxFalseAlarm>
    <weightTrimRate>9.4999998807907104e-01</weightTrimRate>
    <maxDepth>1</maxDepth>
    <maxWeakCount>100</maxWeakCount></stageParams>
  <featureParams>
    <maxCatCount>0</maxCatCount>
    <featSize>1</featSize>
    <mode>BASIC</mode></featureParams>
  <stageNum>2</stageNum>
  <stages>
    <!-- stage 0 -->
    <_>
      <maxWeakCount>3</maxWeakCount>
      <stageThreshold>-1.0151286125183105e+00</stageThreshold>
      <weakClassifiers>
        <_>
          <internalNodes>
            0 -1 1 -2.8252962976694107e-02</internalNodes>
          <leafValues>
            8.9999997615814209e-01 -9.7044336795806885e-01</leafValues></_>
        <_>
          <internalNodes>
            0 -1 3 -3.2964885234832764e-02</internalNodes>
          <leafValues>
            9.2181795835494995e-01 -9.2605459690093994e-01</leafValues></_>
        <_>
          <internalNodes>
            0 -1 4 2.2100373171269894e-03</internalNodes>
          <leafValues>
            -9.3153959512710571e-01 8.8136935234069824e-01</leafValues></_></weakClassifiers></_>
    <!-- stage 1 -->
    <_>
      <maxWeakCount>2</maxWeakCount>
      <stageThreshold>1.9512195140123367e-02</stageThreshold>
      <weakClassifiers>
        <_>
          <internalNodes>
            0 -1 0 -6.6750557161867619e-03</internalNodes>
          <leafValues>
            1. -9.8048782348632813e-01</leafValues></_>
        <_>
          <internalNodes>
            0 -1 2 1.0906205512583256e-02</internalNodes>
          <leafValues>
            -9.7142857313156128e-01 1.</leafValues></_></weakClassifiers></_></stages>
  <features>
    <_>
      <rects>
        <_>
          3 3 6 14 -1.</_>
        <_>
          3 10 6 7 2.</_></rects>
      <tilted>0</tilted></_>
    <_>
      <rects>
        <_>
          9 0 21 12 -1.</_>
        <_>
          9 4 21 4 3.</_></rects>
      <tilted>0</tilted></_>
    <_>
      <rects>
        <_>
          10 13 21 5 -1.</_>
        <_>
          17 13 7 5 3.</_></rects>
      <tilted>0</tilted></_>
    <_>
      <rects>
        <_>
          20 1 16 16 -1.</_>
        <_>
          20 1 8 8 2.</_>
        <_>
          28 9 8 8 2.</_></rects>
      <tilted>0</tilted></_>
    <_>
      <rects>
        <_>
          21 3 1 14 -1.</_>
        <_>
          21 10 1 7 2.</_></rects>
      <tilted>0</tilted></_></features></cascade>
</opencv_storage>
